-0.602498:-0.873288:-0.818749:-0.174194:0.0530313:-0.680006:0.815693:-0.898138:0.434985:0.360955:0.277137:-0.988906:-0.128602|0.044373:-0.834574:0.273753:0.176624:-0.211772:2.58965:-9.86243:0.0266659:0.0287131:-0.932688:-1.63133:-0.0725213:-0.000132083|0.718766:0.0440214:6.92889:-0.847644:-1.2103:-0.506435:0.804544:0.147868:0.0814586:-2.58568:-2.09763:-2.04907:0.717026|0.731117:0.530311:1.06524:0.659818:1.07073:-0.955629:0.623565:0.371729:-0.914587:0.818158:0.628931:0.612422:-0.0397924|-0.592769:-0.182073:-0.5561:-0.499368:0.0931988:0.13369:-0.716848:-0.96902:-0.688623:0.889074:0.0586271:-0.0116738:-0.102439|0.649342:-0.781883:0.624563:-1.2323:-0.280086:-0.504603:-0.210707:0.687258:-1.06565:-0.999906:-0.875017:1.29826:-0.625512;1.03408:-0.810774:-1.49958:-0.907216:1.83352:-0.95652:-1.81271|0.576385:0.217305:1.3464:0.474644:1.78604:0.333566:1.71719|-0.146358:0.589005:1.31725:0.597883:-0.908596:0.31485:-0.354871|-2.24256:0.521655:2.41864:1.62772:-1.06984:-0.632683:-1.24223|-1.56493:0.181125:-0.428492:2.20252:-0.631623:0.349941:2.7336|-1.54824:-0.64223:-1.07141:1.18137:-0.734865:0.0454897:2.13174;1.77242:1.45595:0.726417:-0.68472:-1.32723:-1.16648:-1.434|2.35413:3.80231:0.601814:-2.39995:-2.04149:-0.813593:-1.0764|1.10758:1.40514:-0.193892:-1.94749:-2.05489:-1.08148:0.10061|-0.524699:-0.722627:-0.443108:0.329569:-1.06227:-0.663455:-0.457215|0.303085:-0.272925:0.210392:0.771109:1.57313:1.28231:-1.248|-1.03307:-0.0991175:0.00423475:0.997691:2.17445:1.06815:-0.178717;0.181541:-2.7789:-2.41014:-0.226936:0.667331:2.46942:2.05399|-0.360011:0.105773:3.604:1.65236:0.415756:-2.18382:-2.56848