-0.631686:0.229644:-0.334349:-0.762497:0.928639:1.05566:0.43386:0.241182:1.03793:-0.163797:-0.12532:1.52895:0.191514|0.910571:0.782314:0.877703:-0.958522:-0.536038:0.676072:-0.544128:-0.691159:0.340626:-0.477392:0.0462062:-0.900787:1.13492|0.851282:-0.888862:0.139321:-0.295774:-0.147869:1.08264:-0.247939:-2.5874:-0.684636:0.683961:0.023891:0.495604:0.207558|0.0988267:-0.0859566:-9.82684:0.713962:4.04726:-0.77512:10.5088:0.980852:3.60942:-3.22045:1.30858:1.36178:-1.95734|-0.498308:-0.899379:-14.2188:1.77552:-1.05343:0.050132:3.17717:2.98272:0.657785:2.50628:3.74392:3.37685:-4.66903|-0.507057:0.108347:2.02761:-0.212568:0.0801693:-0.29221:-1.12702:0.725031:-0.859091:-0.332236:-0.82551:-0.0851208:1.79168;1.05047:0.627982:0.187868:1.17209:1.81422:0.969552:-0.284286|-0.317971:1.30893:1.38675:3.32277:1.94762:1.2708:-4.28799|1.77417:-2.61608:1.50542:0.971504:-1.36651:1.66281:-1.75525|-1.37144:1.80223:0.462781:2.22974:1.79582:2.28158:-1.44827|1.6481:-0.427724:-1.27886:-2.11445:0.913292:0.648051:3.52235|-0.425787:-0.368346:-1.89961:-2.69912:-2.07846:1.77801:3.94352;-0.400171:0.812814:1.17442:1.62108:0.864414:0.163924:-0.249505|-1.18623:1.9605:1.57609:1.21398:-1.71519:-1.38215:1.54752|-1.7476:-1.03486:1.73092:0.237871:-1.57492:-3.06009:-3.21676|-1.22889:-1.70284:-1.36001:-0.611195:-0.408354:3.35307:0.272704|0.254845:-2.9957:-4.87844:-1.93158:-0.02206:3.08234:3.47677|1.11484:-0.47411:-5.05805:-1.68707:-1.85462:1.11178:3.79379;-4.87593:-3.1509:0.632239:0.391439:3.87104:5.60204:-0.191304|3.35395:1.9184:-0.529583:-0.424802:-1.61434:-4.07716:-0.941223